// Auto-generated DS-CNN Q15 weights header
#ifndef MODEL_Q15_H
#define MODEL_Q15_H

// net.0.weight, shape=(32, 1, 3, 3)
static const int16_t net_0_weight[288] = {
    6820, 7497, -4128, 8499, -3965, 632, -6855, 4840, 8054, -8013, 9494, 2044, 8070, 1479, 5267, -1542,
    8420, 1614, -5099, 2784, -5032, -1281, -4436, 7246, -8622, -5035, -3084, -6567, 1031, -10788, 9864, -9278,
    8433, 1818, -3547, 6750, 1702, 8825, 1194, -3445, 2935, -2962, 4597, 9752, 6314, -4775, 6305, 1954,
    5547, -6657, -10812, -4220, -8378, 8962, 3160, 4587, 3107, -178, 8609, -8112, 705, -7389, 3021, -3762,
    3347, -2276, 9059, -6474, -6514, -6515, 9824, 3640, 10510, -9014, -10834, -8545, -7348, 4424, 3911, 9076,
    -5641, -7446, 5795, -4415, 6629, -2592, 6248, -8487, -5512, 3330, 2309, -2785, 6511, 7425, -7921, -5831,
    10001, -3686, -3872, -10569, -6255, 2729, -1442, -7929, 256, -7461, -9267, -6015, -9686, -7198, 10340, 1935,
    3122, -10768, -7301, -3880, 1126, -9611, -4706, -6539, 30, -4064, -757, -7402, -7497, -6372, -3739, -8621,
    9158, -2168, 9398, 3403, -9249, 7559, -3005, -4187, -9067, -10859, 3125, -2386, 4252, -8964, 8109, -8018,
    -1886, 2281, 5639, 8818, 9950, -8661, 2749, -4698, -1197, -9039, 9025, -8904, 4972, 2912, 2660, -6774,
    8998, 1507, 1405, -9626, 4585, -1639, -5004, 9382, 2435, -6043, -5528, -1026, 5550, -3447, -6739, -4291,
    -8817, 3387, 7902, -10942, 2537, 5643, 1981, -3890, 5701, 5740, 4084, -1919, -2892, 2128, -824, -2181,
    7944, 10495, -5, -1482, 1269, 426, 3923, 4381, -8544, -2732, 10520, 5633, 758, -5261, -5302, -10195,
    -4011, 3088, 6553, 4591, -10257, -6981, -2177, 9963, 1580, -2829, 4519, -4160, -7070, 7972, -4967, -2190,
    -10866, 6779, 7754, 3416, -8149, -11303, -9437, 7610, 4720, 8624, 4193, 1202, -1673, -9838, -10923, -11786,
    2937, -6931, -3770, -7965, -3684, -9383, -8818, 1928, -4944, 5058, -5203, -9713, -2260, -5498, -3381, -10733,
    5908, -7644, 5154, 4752, 7763, -8160, 8089, -5284, 4272, 10492, -1661, 135, -2280, -9242, 5242, -10843,
    6781, 8173, 10330, -2576, -8975, 2456, 6034, -9743, -1304, -5334, 175, -4199, -3249, -2336, -9202, 10180,
};

// net.0.bias, shape=(32,)
static const int32_t net_0_bias[32] = {
    9775, -1713, -1244, -4458, -9864, -10629, 3684, -5997, -7022, -852, -3637, -3534, 942, -2317, -3761, -5230,
    -8889, 9197, -4371, 3344, -3790, 375, 9594, 5692, -9466, 4608, 10952, 3465, 7989, 10347, -1674, 1617,
};

// net.2.block.0.weight, shape=(32, 1, 3, 3)
static const int16_t net_2_block_0_weight[288] = {
    -8214, -2869, 7471, 4977, -7530, -9377, -8087, -11398, -9046, -2701, 7371, 1828, -8308, -8762, 5434, -8125,
    -1345, 5240, -5055, -1191, -951, -2584, -5538, -9737, -8829, -5849, 10550, -5276, -7335, 2648, 3010, 5985,
    8303, 6083, -10830, 969, 6616, -1010, -6436, 10413, -4085, -6219, -9847, 488, 4840, 2418, 2160, -8284,
    -10201, 192, 9960, 6302, -6360, -1418, -7459, -4675, 2573, 6541, 9643, -9433, 7896, -7109, 4685, 9243,
    153, 9938, -9307, -4172, 6371, -2380, -2236, -4552, 7529, 5358, 3500, -6138, -8866, 1181, 3236, -5043,
    -3056, 7377, 870, 493, -2688, -9891, -10270, -5221, -5552, 3403, -3180, -4273, 10414, 3805, 7787, -5288,
    -4462, 4015, -7278, -7140, -528, -3995, -8188, 6479, 8784, 1772, -1902, -10117, -4553, 2215, 4593, -1956,
    -4884, 5528, -9274, 6337, -4796, 167, -2158, 1324, -3301, 7942, -284, 8526, 10502, -5321, -7968, 8763,
    8559, -8340, -844, -10771, -8941, 2110, 2906, 2315, -2973, 10077, 1562, -6445, -618, 2623, 3825, -7723,
    4094, -5580, -9076, -5966, 10534, 9337, 9781, 6412, 8252, -1556, -6053, 5452, -5753, -7414, -3493, 2198,
    5580, -4248, -6429, 1473, -6438, -7111, 5693, -1835, 9981, 10625, 3267, 4210, 3011, 664, -344, 645,
    4572, 10606, -2335, -4124, -2645, -5277, 1857, 8153, 8541, 5015, -8038, -5862, -2400, -1503, 1449, -9476,
    3911, -7781, -6360, -8572, 10068, -9793, 7650, -959, -1860, 6242, -1602, 6260, 7307, -10075, 3613, 2712,
    2989, 2232, 3638, -4614, -760, 11028, 7979, 227, -10273, 479, -7438, 8882, -6631, -789, -2424, 1944,
    10279, 1353, 6594, 8695, 9135, -3502, -2224, 5581, -2709, 5335, -1799, -6820, 5030, 2262, 5458, 11436,
    8045, 10943, 1169, -9985, -8253, -7370, -10215, -6066, -10640, -10667, -7118, -11353, -5950, 4910, 9856, -2494,
    -2432, 6578, -4634, -4420, 7476, -10058, 795, 9117, 1332, 2429, -6893, -691, 60, 2149, 4244, 9491,
    -8337, 327, -5457, -8641, -875, -9615, 7623, 1914, -5240, 6355, -9688, -3578, -1481, -8632, -6299, -1136,
};

// net.2.block.0.bias, shape=(32,)
static const int32_t net_2_block_0_bias[32] = {
    7668, 11148, 6727, -5833, -6992, 10091, 4463, 883, 846, -8674, -3816, 9884, -3262, -673, -8423, -6017,
    -6, -6830, -963, 4944, -11038, 3758, -7814, -4698, 4802, 8959, -2396, -5080, -9134, -6175, -9948, -1848,
};

// net.2.block.1.weight, shape=(64, 32, 1, 1)
static const int16_t net_2_block_1_weight[2048] = {
    1182, -5427, 5058, 3634, -5671, -2767, 1889, -1190, -631, -2615, 4653, -3238, 4804, 374, 1164, 4519,
    -954, -3298, -937, 4698, -4298, 1315, -5693, 3037, 2140, 246, 2486, 7, 3205, -4586, -851, 2570,
    6015, 2705, -4457, 4704, -1042, -1483, -5508, -1148, 3841, 1057, -3128, 1535, -1615, 5508, -4780, -1585,
    -4980, -2030, 2090, 5331, 1219, 5436, 1341, 3623, 4399, 4593, -3489, 5572, 3762, -2467, -2520, -4603,
    1924, -5178, 1962, 2313, -4550, 1096, -950, 2180, 2834, -5276, 5795, 4374, 2785, -4798, -1584, -1193,
    -1585, 3747, 2588, 4108, -1686, 1474, 2526, -4346, -6100, -3488, 3488, -4973, -4558, 3725, 3610, 5251,
    -4639, -3921, 3291, 4721, 3151, 1226, 2229, 5820, -3420, -2946, 3737, -3646, -3514, 3880, 1509, 1550,
    -2089, -392, 4995, -3157, -272, 3070, -4293, 5333, -2576, -1071, -1307, -4096, -5996, 2944, 1218, -5743,
    -4333, 6352, 2843, 1695, -4093, -1913, -253, -461, -3331, -150, -51, -104, 180, -2933, 878, 1555,
    -3127, -6368, 2404, 2005, -3573, 6199, -3218, 3285, 3563, -4231, 4354, -5949, -3839, -1586, -4533, 5024,
    -1162, 2301, -5172, 3335, -1800, -4406, 847, 2806, 5013, -3538, -2851, 1114, 1571, 2227, 3179, -1313,
    3218, 4271, -1513, 4121, 2830, 5109, -3292, -2860, -1675, 294, 3477, -3307, 2900, -2076, 3499, -275,
    -5675, -2574, -3577, 2259, -4497, 131, 1861, -2581, 2288, -6269, -4757, -4634, -2365, -2741, 214, -1688,
    2626, 4701, 1470, -1670, -6038, 2705, -3467, 2349, 4485, 2847, 6044, 4890, 613, -4833, 4559, -3364,
    -2736, 4847, 4488, 1750, 363, -4873, -601, 5556, 1475, 496, -1203, -2020, 3453, 357, 3769, -1025,
    2531, 2391, 924, 3640, 3630, 5369, 4453, -1481, -4904, 1059, -51, -1511, -970, 272, 4226, 1806,
    -2022, -2403, -1455, -2224, 5223, 3047, 5201, -40, 1168, 2025, -5468, 501, -359, -3183, -4478, 5150,
    4130, 2693, 5520, -2376, -982, 2161, -822, -1182, -4811, 1537, -3525, 234, 5658, -1748, -1803, 3498,
    -1969, -592, 5316, -2276, -4044, -3336, -1596, -2820, -3110, 2438, 1082, -1951, -4445, -1769, -2348, -1792,
    -4514, 1338, -4141, -4544, -4637, 2403, -3172, -1918, 4447, 2977, 3081, -5387, -4447, -2468, 4877, 604,
    -4332, 36, -4499, -1269, -1593, 5014, 1794, -1010, 979, -1672, 2276, 2291, 1556, -2258, 4942, -836,
    -2255, 3628, 4721, 5765, 1716, -1975, 2942, 4970, -5682, -718, -3950, 1080, 2396, -1197, -485, 2607,
    -889, -4918, 4580, -2867, -589, 493, -407, -5526, 2618, -2582, -2954, 1334, -2964, -2587, -1901, -2121,
    -3045, -1516, 1536, -4746, -3455, 29, 848, 3199, -4123, 1794, 3224, 3276, -5354, -2147, -4924, -3622,
    3377, -1003, 2324, -3258, 1024, -3642, 2754, -2645, -1601, -4883, 159, 5359, 2956, -2992, 218, -499,
    -3917, 4694, 252, 1069, -2200, -2860, 928, 2155, 1162, -2941, 5507, -704, -3486, -2657, 5838, 165,
    -1135, -1836, -941, -5455, -5178, 3965, 5522, 6076, -3595, 2559, -4161, 4033, 3610, 3898, 3593, 3046,
    70, 2091, -2650, 3090, -2437, 470, -5640, -2112, -2474, -1385, -3147, -5774, -199, 3197, 4699, 2802,
    -3003, -5729, 2197, 3246, -4973, 2077, 4898, 351, -3490, 4749, 2474, 3836, -3917, 3371, -3957, 5732,
    -2454, 3490, 1160, 1535, -888, 2379, -2414, -5460, -2226, 4539, -1525, 1821, -2142, 4345, 3467, 2045,
    -2961, -4733, 218, -3398, 4763, -5567, 2589, 5775, 2901, 1975, -5573, 5572, -991, -5413, 5718, -2357,
    -410, 5302, -4015, -4098, 942, -775, 1334, -4858, 173, -2576, -2848, -5304, 3071, 1116, -4897, 4597,
    2248, 586, -3887, 1357, 6067, 3485, -5008, 4778, -18, 3272, 4986, 4453, -4021, 5571, -3449, 922,
    -4025, -784, 204, -1186, -427, -40, 6256, 3790, 2750, 1829, 3989, 225, 937, 1690, -4563, -4194,
    763, -2413, -257, -1169, 1058, 3622, -2002, 4570, 4380, -4291, -4323, -4843, -3061, -2143, -279, -1258,
    -2433, -1697, -1905, 5584, -1997, -4247, 2723, 57, 4294, 3483, 5149, -4114, 3722, 4820, -2714, 5455,
    4717, -303, 2424, -1659, -4687, 1098, 1362, -4145, 2441, -4583, 5351, 5243, 1944, -3248, 3187, 1356,
    1414, 2268, 4769, -2857, -937, 1221, 932, 5018, -3408, -579, 709, -1170, 4310, 1000, -4985, -260,
    -2627, 563, -673, -5746, -1056, -555, -1708, 5322, -1264, 3721, 1435, -4890, 1361, 4801, -3789, -3744,
    5670, 4654, -3232, 3486, -741, -5711, 435, 1872, -1738, 2015, -4953, 4014, 4938, 3194, 982, 1908,
    -4714, -916, -18, -3757, -4810, 4428, 4456, -4748, 2388, 1824, 4971, 3885, 4797, -2445, 3522, 4177,
    -5395, -5179, 638, 3691, -3410, 1158, -474, 920, -2583, 3799, 4385, -4550, -470, -505, 1326, 4857,
    1699, -1316, 5203, -2204, -1682, 395, -4411, 630, -3930, 596, 555, 802, -4885, -5502, 2665, 4968,
    -5140, 2146, -4264, 363, 5389, 4394, -4235, 3583, 3026, -9, 5611, -2301, -1348, -2928, 834, 1534,
    349, -3635, -2982, 2345, -4704, -1278, -510, -2729, 1736, 748, 4441, -889, -3278, 4472, 1184, -1283,
    -3466, 1733, -5153, 1145, 3239, -5461, -3433, -3809, 4493, 4548, 6, 5815, -1550, -5234, 2399, 2431,
    5679, -2, 4439, 3551, 4193, -5748, 4770, -4938, 5193, -240, -5134, 1611, -1179, -5203, -2100, 597,
    4512, -1781, 3441, 725, 195, 1108, -3802, -4815, -1820, -5398, -2701, 266, -3815, -2403, -1041, -667,
    -2872, -84, -1176, 2023, 628, -3255, -2347, -393, -3992, 819, -45, 1882, 1726, 4680, 175, -3917,
    3071, -3550, -419, -2230, -1835, -2495, 5686, 3722, 1245, 5078, -5597, 1289, 4075, 4194, -4248, 2433,
    -3865, 352, -629, -5415, -6102, -3233, 3204, 3213, -4458, -2753, -482, -4429, 2687, 4651, 445, -4885,
    1249, 1529, 4015, -2506, -5768, 3117, -209, -2452, -1850, -2409, 5262, -1575, 3601, 4594, 153, 655,
    -208, 3654, -5544, 2629, -618, 2320, -349, -2458, -952, 3454, -3699, -3987, -974, -1781, 2601, 4224,
    -316, 5802, -2094, -3575, -2268, -4314, -3737, -4835, -5458, 1186, 3209, 5762, 5262, -12, 1449, -3139,
    2436, -5708, 2578, 1217, 1935, 1967, -2806, 4823, 2609, 3959, 920, 3483, 4051, 2776, 4567, -897,
    3971, 1492, 3641, 5489, 1466, -2288, -750, 1789, 823, -1742, 4351, 3644, -3470, -340, -402, -3476,
    231, -1158, -2369, -2481, -2683, 6161, 2842, 6310, 2205, 693, 1762, 1614, -5167, -4065, -2024, -535,
    2034, 1615, 3986, 1799, -2597, -3740, -4848, -4051, 2367, 3749, 5687, -2452, -1073, -2342, -644, 1242,
    -338, 529, 996, 1887, -2025, -3194, 1611, -480, -2327, 2165, -209, -575, -3052, -995, -5194, 1055,
    -451, 3250, 78, 713, 1316, 4651, -2953, 3123, 1673, -3604, 2257, -3724, -2105, -2997, -4201, 4275,
    -5530, 3052, -5056, -860, 193, 4273, -1909, 1826, 1057, 3255, 191, 2324, -3671, -4212, 5006, -4379,
    -427, -882, 5518, -1047, -4565, -1344, 3235, 2754, 4947, -979, 3020, -5680, 2049, 2428, 3579, -3537,
    -2130, 2009, -3506, -5218, -6181, 930, 4201, 2064, 975, 1411, -4248, 1221, -2043, -3485, 4384, -5092,
    807, -5696, -808, -1969, 1299, -2655, 3566, -5300, 4084, -3745, 3694, -3042, -630, -1665, 3150, 1279,
    -5104, 533, -3996, 4330, 952, -1490, -2955, 2005, -3469, 2747, 3161, 3556, 1513, -5071, 4167, -1797,
    -1713, -622, 4235, 4454, 894, 2764, -5399, 14, -5125, 1972, -4127, -2065, 4049, 5536, -3478, -3215,
    1343, 1667, -1552, -1204, -3199, 1863, 5056, -3436, 2143, 3436, 5264, -1266, 800, 4880, 4268, 6331,
    -1366, 2898, 4633, -4548, 1760, -1916, 4358, -2049, -206, 2855, -5922, -4277, -2361, 4341, 4495, -3361,
    1668, -3597, -3214, 5517, 3320, -2111, 317, 550, 850, -1459, -2888, 3312, 1313, 2976, -1671, 3333,
    4570, 4044, 2081, 5167, 513, 695, 6082, 6118, -2976, 4689, 1591, -114, 5566, -2466, 4291, 6249,
    -3995, -3418, -5740, -1042, -5261, -1940, 1759, 4095, 3227, 3215, 2403, -3593, -4599, 240, 5501, 326,
    -498, -3932, -2872, -4465, 4638, -944, -5117, 621, 420, -716, 2074, 3115, -5447, -4438, -278, -5371,
    -5828, 5696, 143, -3446, -2568, -3941, 5098, -696, -2670, -4974, 2804, -218, -1188, -2103, -3380, 447,
    4365, -3937, -301, -3826, -3298, 5658, -500, 5009, -435, -2577, -2885, 4555, -5036, 2462, 856, 1124,
    3268, -1515, 3584, -4615, -2038, 4240, 1719, -771, -1353, -3537, 3522, -184, -196, 1370, 4275, -2955,
    -1995, 3925, 3272, -2850, -5730, 1075, 3046, 1384, 4109, -4596, 2921, -3601, 3260, 4308, 1835, 4687,
    -3818, -5181, -5570, 3637, 2029, -4242, 2805, 5285, -5712, 4202, 888, 539, 5212, 5246, 2441, 4577,
    2410, 944, -5092, 1082, -4121, 1783, 1022, 130, -3961, -3511, 4282, 2821, 3054, -1726, -997, -1485,
    3984, -2501, 3649, 3994, -5298, 35, -1103, -3202, 2501, -704, 5071, -3626, 2691, -4946, -2903, 395,
    4577, 3051, -4756, 642, -3415, 251, -4826, -1699, 3973, -5315, -5523, 1055, 794, -1059, 5058, -3488,
    -3288, -4543, -1293, -1266, 3794, -539, 1632, -2631, 4486, 5095, -4978, -1702, -4699, 2705, -4848, -2522,
    5256, -5324, 4476, 272, 4845, -3153, 3986, 882, 232, 3738, -5723, -4449, 5811, -3252, -3960, -68,
    -1854, -792, -3881, 2090, -4984, 469, 3380, 1113, 770, 847, -1697, -1103, -2443, -3913, -3067, 5726,
    -969, 2029, 4006, -453, -3116, -3925, -2134, 2068, -4878, -707, 2203, 4726, 1743, 1146, 3966, 2677,
    1333, -1150, -3997, -1899, -1696, 1071, 5, 2964, 4505, -2994, -6141, -2324, -3415, 2622, -4385, -1194,
    -1279, -4158, 1980, -1770, -946, -3435, -1206, 174, 408, -1520, 2359, -2143, -3860, -4914, -1875, -6125,
    4808, -2767, -2401, 535, 1502, -546, 3974, -3377, 2076, -13, -4712, -2243, 1474, 1107, 4212, 3875,
    -3159, -2474, -1228, -4150, -1564, -4740, 2203, 4099, 459, -4147, -4387, -2255, 1685, 141, 1053, 5459,
    2690, 1246, -1172, 2740, 2119, -5214, -3422, 194, 2198, 2818, -3448, -5747, -302, -662, 1681, -1593,
    4429, 387, 4230, -4033, 2317, 690, -2897, 2872, -5700, 4683, 467, 559, 2679, 481, 2483, 3685,
    -4030, 3313, -1386, -828, 1685, 4012, -3664, -4416, 3078, -2202, 2384, -1373, 2111, 4937, -2417, -2292,
    3237, 834, -121, -5601, 5427, -738, -491, -1834, -1662, 2300, -643, 5467, 174, -325, 3789, 362,
    -1686, 2475, 5109, 905, 3495, 4292, 2173, 2537, 2420, 62, 4390, 5888, 1526, -847, 4652, -5051,
    4334, 2534, 3181, 92, -4861, 4662, -3017, 982, 3819, -4874, 920, -2595, 3571, -4224, 2976, 3065,
    3802, 4956, 273, -4647, 4740, -75, -491, -6117, -1900, -2207, 6280, 3520, 4927, 4564, -2986, -1884,
    -2234, -1714, 5110, 1363, 5247, -874, -4580, -1123, 3466, 2920, 1186, -1093, -4806, -2506, 3625, -1736,
    2201, 2173, -1631, 2934, -2453, 398, -1622, -4935, 1541, 1082, -3508, 4147, -5783, -6185, -4173, -2596,
    -646, -1709, 2048, -4496, 261, 679, 1205, 5154, 4153, -2617, -4165, -1989, -3502, 1439, -540, 4056,
    2519, -1319, -54, 1647, -459, 4420, -4774, 2604, -3966, -4816, -934, 2565, 4338, 1671, -243, -71,
    -1814, -258, -120, 4681, 3645, -4877, 70, -3248, -1171, -4861, 1254, -3925, 5981, 4612, -3736, -5183,
    574, -1972, 1345, -3566, 2727, -5359, -3412, -3401, 2448, 204, -5212, -3664, -2326, -5019, 1097, 2420,
    -714, -1951, 320, -4955, -3172, -488, 5536, -1420, 2516, -2634, -1895, -5160, 5152, 5993, 234, 4034,
    4808, 2817, 2921, -5457, -5387, -4507, 1747, -5092, -4475, -2750, -5282, -51, 900, -3291, 3852, -2136,
    -2253, 4464, 5015, -727, -4099, -2971, 846, 3431, 2822, -2618, -5540, -5007, -1791, 140, -2539, -4528,
    1031, -5018, -4869, -4288, -1149, 4696, 1845, -1102, 770, 2727, 455, -5093, -3149, -3518, 274, -4882,
    -629, -1696, 6107, 4288, 3785, -94, -1623, 1898, -4423, -2892, -1585, -940, -5066, 2722, 5191, -2773,
    1561, -672, -211, 338, 5020, 776, -3665, -2084, 2830, 1808, 113, -764, -2254, -2056, -3056, 949,
    1627, 4436, -1309, 415, 3744, 2520, 744, 1780, 301, -4969, 223, -1266, 5227, 5229, 1149, 5177,
    -2983, 5035, 4987, -221, -4649, -1869, -1549, 96, -5252, 1074, -2409, -1483, -2992, -1223, -5380, -3071,
    534, 3796, 5264, -4382, 2432, -3265, -4479, -255, -3323, -4989, -5413, -3877, 4760, 3231, -2293, -3877,
    -4333, -3410, -2375, 3478, 1892, -2221, 3970, -3530, -4746, 1259, -3201, 1652, 4903, -2785, -4046, 2170,
    -4733, 5193, -2709, 2769, -4615, -3881, -32, 1758, 4507, 4817, -368, -713, 1066, -1262, 185, -5404,
    -5372, 4594, -2759, 3939, 14, 2035, 5888, -2609, -294, 404, 1356, -5014, 1434, -4058, 137, 3293,
    -727, -803, -1046, 5458, 2669, 1595, -4094, -3739, 5238, 4791, 3976, -5140, 3891, -1179, 3642, 4410,
    635, -2410, 5449, -3019, 3785, -5554, -1822, -5050, -2598, 2460, -4151, -5009, 4142, 3092, -63, -4084,
    -1535, -1876, 3577, -1895, -1668, -4106, -2728, 3136, 3732, 842, -2173, 5564, 1143, -2236, -2008, -811,
    2746, 2119, 4199, -261, 4791, -2353, -2668, -2139, -5435, -3803, -5242, -342, 55, -1503, -3959, 5256,
    -1919, 2760, 4034, -3808, -724, 3348, 5615, -731, 4197, -4546, -3764, 4763, -548, 5723, 421, -2402,
    5781, 4761, 234, -3201, 59, -3090, 3925, -4, 894, 3823, 2224, -3925, 5109, 3831, -3267, 4685,
    2229, -830, -3813, -1260, -5374, 3010, 4460, -1309, 5068, -2451, 698, -3737, 74, 2633, 2798, 127,
    -3221, 4615, 4404, 361, -3230, 1794, 580, 5825, 1439, -119, -170, 3650, -634, 4390, 2448, -4946,
    25, -5481, -5017, 1690, 736, 56, 5016, -3610, -1865, -366, 394, -1045, 4629, -3022, -3598, -83,
    3739, 1998, 3745, 499, 4316, 4102, 4766, -174, -4173, -3369, 1351, 4687, -2885, 4157, 209, -602,
    87, -1643, 4807, 873, 2925, -4272, -3589, 51, 5247, 3380, 1722, -6344, -512, -4445, -5571, 169,
    -4059, 5353, -3054, 1767, 3301, -4407, 2986, -702, 3113, 5506, -2563, -2410, 4530, 568, -676, 4299,
    -3207, -406, 3864, 2347, -3842, 1469, -3988, -3409, 3818, -1385, -2553, 182, 1608, -3483, -4000, -5694,
    1969, -4225, -45, -809, -3301, -2335, -4939, -3547, -666, -4465, -4594, 3852, 1031, -2073, 294, 4783,
    -4425, -2587, -3704, -906, 287, -5001, 4534, -3955, 4921, -4474, -1275, 1567, -2089, 5811, -3506, 163,
};

// net.2.block.1.bias, shape=(64,)
static const int32_t net_2_block_1_bias[64] = {
    -4253, 1362, 4455, 5692, 1316, -2900, 6244, 432, 3900, -3104, -2688, -4861, 5191, 1537, -4160, 498,
    -2972, 138, 1556, -2874, 1544, -3657, 741, -5593, 559, 6334, 5010, 1959, 4883, 5896, 1797, 2541,
    753, 4520, 4451, -2724, 344, -2919, 2079, -5613, 1836, -1590, 2748, 1808, -2883, 2486, 3000, -5529,
    6373, 4730, 3249, -648, 1631, -3134, -1968, 2742, 3203, 2294, -5525, 4494, -1852, 5636, 4869, 1660,
};

// net.3.block.0.weight, shape=(64, 1, 3, 3)
static const int16_t net_3_block_0_weight[576] = {
    10882, 6272, 6406, -3709, 10131, 2863, 6454, -2470, 7910, 10013, -8054, 9276, -6895, -7204, -8806, 3480,
    -7885, -3790, -4999, 3414, -10230, -4516, 574, 1474, -4442, 4408, -6713, -9555, -1852, -6147, 6580, -7765,
    -1159, 4232, -9864, 8213, -5582, -3591, -7300, -4689, -4830, -10338, 3114, -653, 10067, 7369, 9502, 3214,
    5739, 10228, 8968, -8393, -2449, -10535, -197, -4469, 8871, 1116, -491, -8510, -9182, 1108, -6036, -5016,
    7662, -5694, -4862, 8387, 4267, -6206, 3308, 5507, -9625, 2110, 2584, -349, 10541, -7131, 5998, -5733,
    -9262, 6851, -5833, -80, 5151, -9710, -9943, 3126, 8930, -1749, 7692, 3838, 3116, -6964, 10395, 5003,
    1689, 7726, -9385, 2448, -5055, -1016, 3673, 4924, 2599, -8359, -6749, 284, -2401, -9647, 10254, 864,
    -8266, 4283, 4236, -5863, 4969, -6248, 4318, 10835, 7738, 5926, -1760, 2579, 4345, 3116, -2213, 1524,
    -4424, -6174, -10080, -8905, -6856, 10441, 2186, -9881, -5583, 2551, -3269, -3092, -4102, -2668, 1256, 647,
    6635, 6609, 8610, -730, -5258, -341, -7616, 4088, -1696, -4056, -9817, 4708, 5539, 9407, -4426, 2734,
    -145, -7513, -7217, 5211, -6672, 7565, 3433, 3332, 6805, 4963, 4312, 5667, -4635, -5792, -2001, 6064,
    7644, 8044, -3445, -1386, -8033, 6189, -7775, -5026, 8474, 2122, -5103, -7900, -8043, 8815, -9983, 9439,
    8738, 677, -876, 8495, 4817, 10328, 9118, -6814, 7107, 5806, -7406, 5612, -5378, -6159, 571, -1342,
    -2937, -7163, 5975, 10891, -2420, -7359, -563, -9490, -8399, -3160, 7345, -7897, -1265, -5190, -9586, -1981,
    -154, -1264, 8561, 4945, 7373, 4854, 1716, 6501, -6393, 6136, 5622, -4298, -171, -7843, -9220, 149,
    2376, -2018, 3375, -8226, -5748, 7798, -10418, 1972, 8671, 8383, 3977, -9694, 787, -4461, -3690, 7749,
    -4332, -8442, -9387, 6276, -93, 11030, 2482, -9938, 2945, 10243, 7016, 3520, -7958, -6308, 7658, -7046,
    2754, -1158, 3917, 976, -8079, -4097, 9788, 671, 4924, -6126, 8032, -2952, -4297, 1601, -4528, -5004,
    -1563, -624, -6212, 3734, -10586, 6705, 10130, 1767, -2552, -10511, 4618, 8439, 8831, 462, 3120, 9959,
    1119, -5784, -10838, 4311, 3788, 9240, -6025, 4224, -4081, -3179, 5906, -10013, 8052, 5080, -6492, 5574,
    -2747, 983, -2924, -10695, -1678, 4778, -1821, -5925, -205, 1443, -3594, -9022, -6406, -1781, 3934, 9713,
    203, 3911, 6285, -4763, -3624, 7245, 7820, 2588, -8441, 6200, -9028, 5459, 1294, 3528, -10647, -3840,
    4639, 8407, -3127, 9740, -2437, -6588, -4730, 680, -1686, 5529, -5810, -2852, -10582, 9150, -1800, -8367,
    -292, -20, 3034, -1199, 6871, -3769, -3269, -2594, 1950, 8751, 143, 9051, 9224, -5041, -291, -4513,
    5189, -3193, 3976, 653, -7170, -7343, -10668, -6110, 3051, 665, 8215, -9604, -319, -9794, 64, 3980,
    -9798, 9646, -3392, 9678, -1833, 5699, 9432, -4471, -3152, 5232, -9846, 5968, -7358, 9650, -6610, -3946,
    8692, -4207, 9911, 8056, 10532, -10039, 664, -3067, 3203, -7649, 5005, 84, -4564, -9300, 6314, -3354,
    7448, 1333, 2711, -2268, -2124, -4322, -10070, 6256, -7490, 6078, -3976, 6555, 9073, -6972, 8731, -22,
    -8636, 4171, 5868, 9300, -10723, 9546, 7952, 10420, 5636, -5638, 7960, 9879, -4287, -1891, 8444, 8682,
    7110, 8265, -5723, -1990, -3957, 6115, 3161, -8031, -933, -8468, -9873, 10396, -5056, 4875, -2432, -2212,
    -7, 8519, -1511, 9038, 6391, 7493, -9906, -5107, -8899, -2320, -2262, 2220, 9786, 4903, -7601, -7398,
    7700, 539, 2537, -6261, -1880, 2561, -7716, 6581, 4831, -6981, -5090, -3180, 1089, -4617, 9836, -11132,
    -6784, -6630, 2953, 1550, -3112, 9322, -9429, 3850, -6010, -2487, -10519, -8154, -9267, 4765, -4102, 5714,
    -5920, -2706, 1322, 8805, -3292, 5985, 2666, 6295, 6553, 4085, -3641, -3413, 3638, 5340, -1198, 4861,
    -7185, 5542, -1955, -8131, -5922, -8964, 1580, -7101, -3750, -1307, -7287, -342, -2009, 2837, 8346, -6135,
    6427, 224, -5784, -4499, 3236, 2733, 102, -4967, 5980, 2091, -10147, -1458, -2493, -4190, -5587, -8390,
};

// net.3.block.0.bias, shape=(64,)
static const int32_t net_3_block_0_bias[64] = {
    10339, -9740, 10635, -8915, -3284, -5097, -6464, 4495, 6313, -7802, -4898, 5607, -1841, 3284, 6352, -4156,
    -6530, 3448, -4360, -7754, -6083, -5674, 11519, 2557, 5296, 2053, -7216, 8442, -2314, -2540, 9198, -6194,
    2335, -9924, 5001, 4944, -9570, 6738, 1011, -6290, 9513, 5327, 4495, -3494, -6601, -6511, 4677, 3543,
    -7163, 9690, 5892, -4231, 6239, -5253, 4062, 8520, -10285, -6069, -66, 1334, -9618, -7810, -574, -986,
};

// net.3.block.1.weight, shape=(64, 64, 1, 1)
static const int16_t net_3_block_1_weight[4096] = {
    1514, -100, 1475, -358, -162, -870, 837, 3429, -1422, -2754, 1169, -2337, 2033, 2520, 1226, -2408,
    -514, -2616, -3986, 3225, -4304, -4032, -958, 863, 1572, -1386, -1027, -282, 2792, 3442, 2313, -658,
    3702, -3948, 2339, -1747, 2561, -2988, 2132, -4001, 3016, 1382, 4148, -3718, 2004, -3372, -1580, 2195,
    -1322, -2610, -2861, -1598, 1769, 2964, 3646, 697, -3147, -4285, 3096, -1690, -1353, -3940, -3303, 247,
    -405, -135, 554, -391, -1399, -763, 1186, 3596, 4065, -3944, -4069, -9, -893, 2836, 4461, 447,
    -3511, 149, 2321, 906, -3488, -365, -3349, -1050, 3449, -1193, 1894, -2735, 3033, 1903, 3257, 521,
    894, -2617, -1650, -2208, 2787, -816, 697, -4455, 1699, -792, -2683, -102, -4378, -1003, -2754, 3171,
    -3852, 1275, 2638, -3818, 3254, 2731, -1908, 953, 646, 2787, 2614, -2840, -3941, -4219, -2251, -1416,
    -840, 2079, -2187, -3898, -3836, -3051, 3377, 1151, -95, -1836, -3766, -765, 1528, 3397, 3587, -338,
    -2871, -1796, 3679, -4330, 339, -1020, 4436, 3033, -400, -2765, -91, -2232, -1068, 910, 2630, -1741,
    -2135, -4130, -3253, 1147, -3126, 782, -1331, -3405, 3388, 2951, 3510, 3301, -3596, -2819, -2452, 3389,
    1780, 3944, -2243, -2730, 4628, -3886, -2094, 2137, -4216, -1792, 1179, 3949, -1097, -4260, 1847, 3537,
    -3192, -28, -3111, -1941, 1503, 2035, 1836, -3973, -1129, 1881, -261, -1387, -2011, 3762, -3410, -3115,
    3117, -2615, 2547, -2118, -409, -1853, 3230, 2753, 74, -24, -1409, -2333, -1473, 1329, -875, 2903,
    507, 195, -2668, 1533, -3633, 823, 1425, 872, 2740, 860, -1231, -2761, -3669, 2199, 2103, -3231,
    1242, -1653, 3321, -1333, 3260, 3020, 2156, 2657, 1428, 1518, -3473, -1022, -312, 2141, -1562, 1928,
    3396, 1160, 2732, -1160, 1346, -2023, 2930, 513, 369, -4224, 3175, 38, 2430, -2068, -2809, -1270,
    -3898, 1396, -449, -2120, 1951, 2036, -2999, -2664, 3016, -1872, 176, -473, 114, -2355, 628, -2067,
    -1230, -2640, 1527, 3269, -719, 578, 3975, 2684, 17, -2736, 1579, 610, -3859, -4297, 1044, 4625,
    -4281, -1399, -803, -4147, -1902, 2597, 3751, -2399, -531, -3954, 1151, -2219, -2705, -2517, 145, 2204,
    -1084, 136, 3896, -877, -210, -330, -687, 3093, 2839, -2826, 3282, 2982, -1270, 4194, 854, 1959,
    -4115, 4299, 3560, -3693, -4297, -1825, -1885, 1728, 2457, 111, 2245, 788, -1840, -3610, 1932, -4492,
    616, -43, -1667, 1864, 163, 3374, 3172, -3948, -2413, -870, -2313, 656, -3316, -3766, 1824, 3110,
    -1824, -3458, 1203, 1565, 3835, -245, 3477, -3033, 3284, -3279, -3358, 3533, -1543, 1892, -3340, 2552,
    3505, 1619, 2878, -2545, -526, 1628, 2695, -2569, 2225, -966, -1807, 422, -2817, -4149, 981, 1775,
    1962, -915, -2761, -2910, 4293, -3170, 854, 2945, 2726, -2959, -940, -3656, 2942, -3487, -4150, -2354,
    2963, 3046, 2366, 2761, -1529, -2666, -2893, 1733, 1212, 468, -3531, 743, -1792, -419, -1013, -227,
    -3215, 3126, -2117, 1679, 2433, 2032, 2486, 1934, 3381, 1246, 2987, -2141, -1826, 2329, 1471, 205,
    -2825, 719, 3287, -1101, 309, 1190, -4679, -41, -898, -2725, 1876, 4686, 26, 3176, -2406, 93,
    -1166, -1904, 540, 672, -828, 1107, 2599, 4348, 870, 778, -687, 1198, -3291, -618, -2834, -3505,
    -2860, 2397, -1728, 302, -194, 4250, 2468, -3549, 4631, -3247, 1166, 3115, 2920, -1587, -2103, 2435,
    2525, -1561, -25, -3025, 2198, 239, 2663, -776, -4588, -2358, -3766, -394, 857, -4042, -662, -4555,
    -2903, -2868, -1395, -2075, 630, 2504, 3088, 1291, -27, -730, 2781, -2346, 2961, -3944, -3057, 1087,
    -1687, 764, 3569, 1871, 4009, -1735, -1956, -520, -825, -1802, -254, 3700, -2245, 2300, 1903, 2372,
    1105, -1513, 1690, -1929, -2514, 3829, 3395, -2960, 3327, 849, 1050, 3948, -215, -1303, 2571, -1058,
    -983, -1652, 4032, 1954, -664, -82, 287, -2428, 1163, -3179, -191, -769, -1672, 3788, 1147, 1973,
    -2873, 830, 922, 2303, -1032, -630, -3149, 2316, 2559, 2098, 2256, 2279, 4026, 1167, 1303, 1462,
    -2138, 857, 1401, -3084, -1036, -2352, -2794, 2677, 3048, -740, 1431, -1136, 1045, -513, -2307, -1547,
    3900, 867, -2415, 291, -3910, -139, 2990, 648, 800, -4033, -947, 2590, -2828, -1741, 2593, 1005,
    2091, -3996, 2432, -721, 686, 3485, -3948, 995, -3526, 3208, 1316, 286, -1464, 1721, -1958, 946,
    3096, -2731, -1536, 1301, 1053, 401, 3868, -1409, 712, 2515, -450, 2333, 3056, 1476, -1344, 3902,
    -2019, 922, 935, 3235, -3016, 1059, -2703, 1826, 1054, -3527, 88, 801, 2084, 3974, 1496, 1124,
    1842, -3527, 2388, -826, 2663, 828, -559, 3228, -2732, 811, 1453, -1114, 1828, -3705, -2411, 1620,
    2453, -4099, 1076, 738, 3651, -3651, -1321, -2663, -2148, -324, -3424, 2874, -1105, 1776, -2057, 357,
    -2271, 2676, 4084, 2597, -2064, 1916, -4054, 2512, 117, -4026, -3916, -3208, 149, -858, -1254, 3270,
    -1884, 2005, -1009, 1838, 594, 1962, 1702, -266, 4250, 338, -3081, 1907, -1130, -3148, 1165, -1583,
    -1002, -2594, -1115, -1026, -229, 4590, -1790, -2543, -2120, 477, 919, -3440, 1239, -4310, 4420, 1402,
    -1045, -842, 2464, 2454, -2046, -1660, 3648, -137, -3649, -1949, -425, -169, -3439, -3200, 638, 2259,
    3334, -71, 1170, -2861, 2575, 4307, 2526, -2012, 2947, -3488, -99, -1406, -3662, -2731, -3377, 1493,
    54, 1487, -849, 3771, 855, 3788, 2934, -3867, -3146, 2076, 4262, -3889, 447, -1234, 3465, 3792,
    2589, 2599, -775, 3387, -1524, -190, -1469, -2595, -2332, 600, -757, -2321, -128, 1101, -3256, 2065,
    -3091, -351, -3741, -3317, -903, 4110, 3479, 1081, 3566, -1846, 2695, 2111, -3522, -2748, 2159, 765,
    -2142, -3853, 3595, -182, -642, -4594, 2959, -2074, 2448, -1125, -496, 2637, -1720, -521, 3899, -3769,
    1185, -434, -1669, 2109, 61, -4447, 4293, -1399, 4175, -652, 3364, 1842, -834, 1451, 503, -2665,
    2871, 2015, 114, 4487, -373, -1533, -1622, 2122, -1033, 3221, -3345, -488, -3463, 815, 3958, 2249,
    -2042, -3218, -1316, -2951, 4547, -2836, 2218, 3918, 842, -4228, -1029, -621, 2006, -1020, -687, 3096,
    476, 2395, -1821, 3176, 1092, -323, 1291, -3724, -344, 2379, -3338, -2671, 3068, -409, -639, 917,
    -1337, 2892, -260, -992, 2658, -2910, -1255, -87, -1776, 1725, -3000, -1680, -1218, 4176, 1136, -2555,
    1091, 417, 3253, 1761, -1892, 3151, -1227, -433, 730, 3570, 734, -3455, -808, 4317, -1946, -2476,
    -2764, -2757, -2731, 1410, 1134, 4409, 2188, -437, 2711, 2841, -3046, 1577, -2302, 3665, -1299, 1330,
    -44, 1900, 637, -2971, 1659, 2416, -2133, -2657, -2789, -1993, -516, 306, -29, -1083, 2542, 216,
    -2378, -1084, -2408, -1445, -3864, 716, -3174, 1584, 2806, -3047, -2162, -3236, 1093, 793, -2114, 2474,
    1700, -3701, -223, -1763, -710, 2281, -441, -2845, 2881, -3744, -1407, 1578, 3620, 3975, -962, 1367,
    -3597, -797, -1274, 1163, -2684, 885, 2116, 3192, -693, 3742, -3870, -1161, 1553, 1050, 1929, -2718,
    3152, -4464, -2173, -908, -4613, -4527, -4271, 3927, 1520, -1939, -797, -2945, -4498, -2228, -3330, 2065,
    -2071, -484, -3828, 46, -1245, -3421, 3259, 4086, -2285, 2954, -1294, 594, 1107, -862, 4110, 1887,
    -2029, -3134, -3432, 1945, -3714, -2800, -2016, -4683, -2710, 4287, 2922, 3002, -2619, -2318, -806, 719,
    -3573, 1224, -2002, 114, 4387, 58, 3621, -2288, -1213, -3163, -1016, -1037, -2958, -4592, -1990, 3,
    -721, -3815, 3077, 3037, -2469, 416, 2720, -3890, -3619, 2273, -81, 1304, -1703, 743, 2717, -1002,
    -1323, -3900, -632, 2595, -3871, -316, 2986, -1169, -1513, -1235, -1660, 490, -3944, 1565, -1034, -521,
    -276, 2288, -2544, -3727, -2963, -3005, -1994, 3235, -3169, -2408, -3339, -2058, -115, -2498, 43, 1384,
    -697, 1767, 940, 3957, -209, 3550, 3066, 1958, 2318, -2743, -2743, 1749, 1487, 3696, -533, -753,
    2299, 640, 3321, -1582, -843, 687, 2690, -4100, -1656, 3484, 1361, 2388, -857, -3085, -3306, -1794,
    -2568, 1522, 1279, -2112, 4254, 1675, 1015, -2235, 2331, -3386, 3494, -2735, 2239, -1126, 2154, -2928,
    -1306, -595, -2957, -2521, -642, -85, 2403, -164, 3507, -2459, -2614, 294, -232, 1811, 3282, 892,
    -2923, -1902, -1318, -3243, 755, 4085, 1525, -589, 196, -1409, 40, 3098, -1596, 1157, -2481, -630,
    869, -3715, 1747, -4147, -2306, 2215, 3208, 314, -2303, -3997, -1637, -1463, 2628, -2293, 3100, 148,
    -1884, 3964, 1979, -777, -3407, -1840, 1955, 4183, -749, -1070, -4633, 3152, 3363, 2710, -1651, 2301,
    -611, 1500, 3024, -2705, 380, 2270, -1851, 3153, 3825, 4058, 597, -2822, -2872, 809, -183, 3892,
    2797, 942, -2727, 1089, 4301, -1664, -1509, -327, -48, -3674, 1621, 2347, -2200, -2153, -2414, 2651,
    2210, 1382, -405, 1245, 4180, 1515, -1829, 1367, -1845, 73, -2420, -339, 462, -2701, 2415, 4000,
    -3212, 974, -2938, -596, 2175, 146, 1022, -1542, 3692, -2136, 985, 202, 2993, 561, 2249, 1268,
    2397, 275, 1150, 3823, -1117, -1885, 2762, 1785, -4085, 1239, -4245, -2006, 1821, 2371, -1138, 3242,
    4282, 2974, -3981, -1286, 28, 3547, -904, 637, 2374, -1925, -2277, 3831, 125, 3119, -3779, -1354,
    3508, -1021, 2012, -4063, 3355, -2681, -841, -2047, -1191, -4146, -4217, -208, -2433, 3650, 616, 2552,
    -1324, 1498, 3634, -3805, -2405, 2866, -303, -468, 960, -1568, -338, -1066, 666, -973, -742, -2177,
    1697, 1414, -3113, -2221, -4565, 2548, 3687, -4571, 1693, 1467, -1564, 252, 2523, 3379, 2402, -179,
    -2965, -932, 663, -841, 3625, -4338, 1001, -669, -293, 3303, -452, -110, -2023, -4723, -4181, 1227,
    -2969, 2794, -1616, 1942, 3449, 1065, 1869, 2996, -1754, 3478, -2977, 3284, -894, -605, 1832, 768,
    4045, -2269, -2186, 4123, -2010, 3285, 3479, 2308, -1999, -517, -3224, -2697, -388, -2286, 1897, 2611,
    -1637, -183, 3488, -718, 3943, 3328, -1907, -3446, 3357, -2668, 3455, -2147, 1209, 1673, -1430, 2748,
    -3249, -2170, -1110, 3563, 1431, 3101, 1298, 3216, -557, -799, -89, 1141, -736, 1967, 1601, 1434,
    2844, 1143, 2207, -646, -3171, 3000, 2203, 2944, 1074, 580, -2463, -4376, 1335, 2826, -815, -841,
    2549, -2470, 1604, -2828, -3207, -1893, -1197, 883, 1563, -3106, -348, 853, -392, 439, 2156, -680,
    1618, 3832, 875, -1225, -2093, -3203, -1286, 1776, 1747, -694, 2795, -1131, 1313, -1595, 595, 2980,
    1936, -217, -1993, -2903, -3304, -3017, 2413, -2200, -109, -3174, -667, 3001, 1251, -229, 2604, 3623,
    3187, -3031, 294, -3364, -2824, 3145, -3263, -2009, 1964, 3985, -3979, -2643, -1606, 3173, 2387, 2554,
    2625, -1025, 3020, -115, 385, -1086, 1738, 1829, -434, 3606, -1061, 1037, 3720, 2308, -1492, -1855,
    791, -31, 288, 2638, 1432, -2297, -3344, 3872, -451, -1614, -3008, 3933, 2067, -2597, -3538, 3558,
    1763, -602, -3404, 2483, -2780, 2013, -3890, -3652, -3929, 3713, 3722, -3495, 3166, -2490, -3807, 1971,
    2073, 2570, 470, 4181, -3278, 2139, -1048, -47, 2577, -2683, 2044, -1067, 2906, -358, 1783, 4179,
    -1213, -4284, 3653, -2006, 1184, 2797, -886, 2952, 2397, -1075, 1323, 61, 4258, 3079, -2976, 644,
    1960, 3383, 1151, 1491, -506, -161, -3083, 3622, 2976, -2505, -3757, 3443, -3381, 2877, -4240, -2332,
    -1484, 3601, -940, 3773, 940, 4218, 2463, 2768, 3820, -961, -879, 1073, 3858, -1257, -2979, -2958,
    -1892, 654, -474, -1092, -1915, 1065, -3374, 4030, -634, 764, 1349, -1594, 3233, -30, 336, -3899,
    507, 1405, 571, -406, 3093, 3238, 2820, -711, 708, -2860, -3066, -716, 458, -2386, -3419, 1863,
    1498, -2706, 2726, -3062, 3098, 2176, -1384, 3900, -2300, -1871, 3265, -1055, -1654, 634, -692, 2580,
    3344, 1822, 886, 1029, 107, 481, 78, 2793, 2291, -412, 1547, 227, 1447, 3363, -2787, 582,
    -852, -4004, -3980, -536, 2932, -2701, 1334, 2361, -2985, 1759, 773, -3729, -79, -3845, 3581, 1920,
    1569, 3145, 3132, 4066, 1690, -2957, 3805, 1138, -1615, -1524, 3833, 910, 2977, 319, 3784, -2997,
    976, 977, -47, 3644, 823, 222, 2796, -323, -265, -3377, -27, -1912, 2372, 3563, -3821, -2372,
    3944, -1748, 3643, 4033, -1027, -3316, 2048, 1862, 3560, 592, 2227, -3512, 564, 964, 2567, -2193,
    -489, -2441, -2757, 1705, 625, 1628, -93, -101, -157, 2213, -2834, 883, 2246, 2376, -1966, 3172,
    -2730, 2136, 3351, 131, 1255, -3880, -1620, -1609, -3814, -867, 2859, -391, 4048, -3687, 1634, 3542,
    3981, -1589, -3698, -1505, 3036, 359, 3915, -2991, -2565, 2087, 1404, -2661, 3811, -1580, -3404, 1138,
    -2295, -1949, -2288, 1114, 1919, 2755, -2318, -957, 3823, -2104, -1481, -788, -3627, -3027, 3649, 756,
    568, 1821, 2293, 2949, 3131, 1851, 3285, 2479, -882, 566, -1948, -3280, 4082, -3248, -2758, -3759,
    -2940, 733, 1763, -3217, 523, -2826, 578, 2249, -1770, -1995, 2865, -2837, -640, -3213, 2673, 1504,
    -1825, 3112, 3681, 1474, -2695, -1091, 3097, 3174, -1544, 2513, -2876, 1296, 3808, 941, -3452, 1030,
    2481, 2651, -2892, -538, -411, -519, -1106, -1673, 1608, 2144, -598, 3022, 176, 1196, 1223, -1197,
    451, -1079, 2184, -2830, -2513, -4588, -2416, 1940, 3934, -4671, -2103, 3203, -2844, 3393, 799, -4482,
    55, -1831, 495, -4303, 3218, -2381, 3253, -1943, -2799, 2244, 1832, 597, -4100, -1235, -2208, 527,
    1294, 2205, 4717, -1259, 2603, 3480, 1240, -4650, -2214, 2419, 3678, 1560, -247, -3130, -2968, -1703,
    -603, 1164, 3762, -3489, 2778, 2835, -3068, -1552, -1778, 151, 3105, 1431, 2138, 2679, 2744, -4285,
    -2676, -268, -15, 345, 3441, 3710, -1198, -1894, 332, 518, 2526, 1455, 1276, 1345, 3050, 2439,
    -403, -2858, 2762, -334, -2934, -683, 3014, -1883, -395, 1382, 2945, -613, -2942, -1712, -1322, 447,
    -2781, 3609, 1080, -2951, 2237, 207, 4008, -82, -54, -3953, -3383, 14, 3476, -2533, 802, -2823,
    -3175, -1506, -2742, -3389, -1257, -560, 2039, 1883, -54, -936, -870, -3364, 2847, 3674, -3766, -3911,
    -3838, -661, -10, -2675, 2263, 270, -2073, -3962, 3190, 4063, 380, -1962, 2604, 2414, -588, 3841,
    -3027, -469, 3471, -2534, -1263, -1741, -1677, 3608, 2525, -3724, -2505, -53, -1332, -2256, -4026, 3021,
    2293, 1188, -922, -3970, -256, 1566, -1189, 3224, 936, -203, 1619, 2135, -3004, 1246, -3723, -858,
    -1328, 3128, -3945, 1455, -3732, 1776, 1003, -1612, 1210, 3931, 2494, -3737, -1062, 3715, 634, 505,
    292, -1440, -1071, 272, 3083, -1154, -1072, 780, -1499, 3573, 3081, 172, -2649, 1146, 3474, 1349,
    1717, -2168, -4035, -1540, 131, 3639, 855, -751, -1029, -783, -2203, -1715, 761, 2774, 3479, 1577,
    -2830, 3787, 3955, -1217, 141, 3708, -1440, 1942, 681, 2283, 1427, 4064, 3471, -2795, 2465, -810,
    -2143, 687, -558, -2669, -3615, -2283, 422, 2496, 2414, 1092, 3886, -3508, -2578, 1763, -3731, 3863,
    1194, -2129, 4289, 1281, 2812, 2453, -1346, 4351, 1163, -235, 795, -2582, -3077, 4503, -2048, 1584,
    1839, -2704, -770, -676, 2409, -1753, 4332, -2804, 2344, 2869, -2104, -715, -3244, 972, 2002, -2072,
    3942, -1268, -12, 3832, 85, 2825, 3023, -3314, 573, 4250, -1900, -91, 2411, -185, -288, 2118,
    -4020, 3988, 3841, -1680, -848, -1434, 4708, -943, 592, -4522, 676, 3075, 694, -829, -173, 3000,
    1780, -946, -3290, 2985, -1525, 2554, -823, 68, -3230, -1560, 338, -3958, -843, 2380, 2879, 3017,
    -1249, 322, -3287, 2122, 725, 3428, -637, 3917, 2029, 3496, -267, -3214, -3212, -3862, 681, -3167,
    -1338, 2081, 3724, -1027, 2836, -310, -820, -485, -1857, 1121, -22, -1996, 2605, -1830, -2774, 1422,
    -252, -2255, -3344, -1227, -3136, 2228, -510, 2110, 1994, 330, -631, -2112, 922, -3562, -1996, 3266,
    -164, 2683, 3058, -1493, -3928, 2655, -288, 4505, -3081, 211, -4159, 129, -4217, -3103, 840, 3408,
    -323, 245, 3519, -258, -2917, 1971, 3556, 4185, 3853, 4438, -2149, 1223, -2129, -655, 3869, -3869,
    2869, -3007, 651, 146, -2478, 983, -1464, 3076, -857, 3226, -343, -3854, 2547, -1768, -1067, 942,
    -674, 1781, -368, -1718, 2876, 1243, 4254, 1083, -1697, -1507, -1401, -698, -2031, -1789, 765, 1069,
    2615, -3485, 2674, -324, -3501, 3181, -1819, -2349, 859, 1174, 3294, -3359, 2729, 1637, 2032, -861,
    1199, 704, 4020, -1986, -3259, -3201, 40, -3616, -1255, -2415, 1244, -3406, 3027, -3686, -2746, 1347,
    -4530, 1513, -2034, -2572, 3439, -1826, 469, -1079, 1417, 3227, 3429, -1976, -3569, -2361, 653, 1146,
    2654, 1278, 3486, -2661, -3715, -779, 2676, -3647, 3574, 1185, 3027, 3562, 4490, 4435, -516, -1260,
    1739, 3493, 102, -970, -662, -1462, 1967, -4074, 3485, -150, -2483, -1461, -2514, -3559, 412, -930,
    -1839, -698, -565, 1805, -3313, -96, -56, -3348, 3776, -1942, 3250, 3140, 111, 3050, -3082, -450,
    -3379, -2493, 1294, 3052, -2431, -1655, -2297, -356, -3402, -3242, -891, 3935, 706, -1705, 2738, 3023,
    2799, 38, -444, 2660, 2202, 3106, 2950, -1163, 3469, 801, 4078, 4075, 3435, 2727, 3216, -1925,
    -966, -1573, -1464, 2382, -249, -1670, -2468, -3015, 915, 2969, 2066, 3870, 2177, 2351, 514, -3658,
    2376, -2262, -2752, 1012, 1620, -2763, 3223, -3201, 1609, 2441, 133, -1673, -3402, 3157, 1531, -2391,
    4574, -1495, -132, 1686, 2778, -1192, 629, -2471, -1231, 74, 629, 1570, -3691, 1740, 3830, 168,
    -999, 1632, -3128, 2480, -83, -468, 2574, 2334, -2529, -3641, -4513, -2828, -1492, -3814, -885, -2710,
    2321, 2802, 3465, -2686, -2891, 1421, -935, 3106, -3758, 3798, -2841, -3285, -434, -1815, -2582, 2338,
    3163, 2280, 500, -589, -2235, 3904, -2231, -3591, 3475, -330, 2752, -1360, 3190, -2888, 2465, 3188,
    -57, 2716, 145, -3750, 1794, -3184, 129, -3684, -1950, -1220, -1592, -4035, -2034, -3795, -3424, -4086,
    -2360, -918, 3690, -2882, -3115, -3334, 3832, -524, -1090, 2246, -2420, -1083, 3754, 2182, -3177, -1126,
    1032, 861, -1251, 2240, -568, -4174, 464, -3344, 907, -4682, -1796, -328, -4307, -532, 770, -2936,
    -55, 2785, 219, -4652, -643, -2551, 1799, -2654, -2202, 496, 1734, -462, -851, -514, -2576, -956,
    514, 38, 2459, 1852, 1652, -149, -1161, 2846, 3891, 2866, 3617, 1379, 2989, 2926, -2700, -3224,
    -2757, 3755, 4321, -267, -2395, -2558, 2580, 4444, 160, -3326, 3324, 4190, -2428, -2848, 1885, -3507,
    4057, -1457, 574, -2821, -4679, 288, -2093, -1764, 3896, 123, -1734, -3145, -2930, -716, 2360, -4369,
    1727, 4361, 965, -4705, -96, -2291, 1934, 483, 2633, 295, 102, 2270, -3666, 593, 4285, 2226,
    891, -1360, 2330, -2964, -1869, 4191, 1148, -691, -2593, -2017, 1199, -3716, -1822, -2656, 1893, 1254,
    -4590, 1985, 265, -2532, 3655, -3335, -3099, 1085, -2858, -2302, -4165, -409, 2618, -4352, -3237, -1467,
    -3242, 767, -814, 3099, -4071, 137, 1806, 532, -1115, 3841, -3179, 3815, 1115, 1950, 2888, 408,
    434, -831, -3716, 1725, 3063, 1713, -639, -3667, -68, 1065, -3206, 3483, -108, 1119, 3613, 1778,
    -2219, 1511, 2408, 2044, -1924, 416, -2943, -460, -2842, 2342, 4008, -3967, -1914, -1733, -2868, 3727,
    -3164, -2141, -3403, -14, -3032, -2759, 4073, 1830, 1738, 2905, 708, 665, -3076, 1151, -3200, -18,
    -1580, -2942, -1763, -2612, -3069, -2874, -2126, -3109, 3901, 744, -4703, -3468, -2692, 2208, 4383, -1268,
    1800, -1586, -1151, -1268, -4619, -612, 1717, 3130, -2535, -600, -475, 1068, 55, -3156, 3809, -4334,
    -792, 1399, -394, -1340, -4674, 3455, 518, 1345, 1280, -2412, -813, 2292, -2639, -2526, 2877, -1137,
    35, -1367, 1885, -118, -2616, -3741, 2140, -711, 1609, -421, -1964, -119, -2499, 1386, 2778, -675,
    -2011, 2325, 3968, 2163, -707, 373, -426, -922, -3434, -1133, 1143, 3014, 345, 2496, 3197, -1421,
    2038, 536, -1751, -2223, -3018, -3787, 1571, 4418, 1216, 1187, -2166, -982, -1920, 1303, 1336, -2138,
    1432, -1357, 348, 3538, -2340, 4455, -1631, 3162, 2164, 2278, -303, -1744, -3629, -4566, 3499, 4611,
    542, -979, 1523, -687, -2906, -3914, 2056, -566, -1609, -3103, 1244, -1474, -1940, 1556, 3466, 3105,
    1612, 146, 3078, 3621, 1839, 1204, 988, 417, 2704, 1159, -3454, -2420, -3720, -1231, 209, -1737,
    -3767, -2664, 1743, -289, -687, 663, -865, -2232, -1880, -1670, -3834, -3777, -1552, 1537, 4006, -111,
    2797, 1354, -3262, -2049, -1124, -3376, 574, 973, -3193, -862, -3613, 4079, 2423, -1545, 3521, -2564,
    3446, -1576, 1197, 2846, 1907, 993, -472, 30, 3497, -1339, -1329, 523, -1987, -1549, 320, 3081,
    898, -2096, 2029, -1071, 1504, 682, 3370, -1355, -2097, -376, 474, -2367, 3262, -2644, 208, -2707,
    -67, -1317, -1606, 2580, -3212, 870, -823, -2571, 2730, 2120, 1675, -360, 2718, -1444, -3771, 4372,
    -1969, 1268, -354, 3008, 4516, -3196, -476, -2881, 2212, 3471, -2010, 1179, -462, -547, 2808, -4265,
    -119, -453, -4042, 2058, 2287, -2813, 1144, -702, 4281, -3420, 3902, -1951, 3893, -1645, 1111, 1376,
    2541, 1920, 2289, -862, -3241, 48, 3736, 3543, -2410, 2818, 1842, -741, 2236, -171, 499, -2684,
    -504, 4010, 2537, -3310, -232, 2609, -1753, -513, 2043, 3442, 3716, -2959, -3860, 2895, -317, 3698,
    2907, -1599, 1173, 1378, -1466, 3680, 336, -1339, -3741, 3278, -4062, 3118, -1435, -750, 553, 4026,
    -2696, -2909, 2462, -1989, -1507, 2368, -1698, 2440, -1597, 3151, 4080, 567, -1364, 2304, 1145, 18,
    3158, 257, 936, -724, -239, 322, 778, 1293, 2597, 3010, -1227, 3178, 3268, 971, -51, -1821,
    -1944, -472, -2854, 1935, -3216, -3154, -2338, 1858, 2698, -3949, -2091, 411, -241, -2956, 641, -2910,
    -239, 2173, 3283, -3994, 3558, 72, 3074, 4530, -1515, -1136, -1492, 3717, -1276, 3208, 1182, 3339,
    3401, 2830, -3857, -1727, -3408, 2532, 334, 1065, 2039, 672, 2047, -2709, 3160, -3025, -3286, 1869,
    4476, -2119, 4493, -2084, -3746, -1271, 1631, -1498, 4464, -2465, -2442, -1080, -3748, 4448, -1680, -2473,
    -1879, 4072, 1610, 875, -1708, 1437, 1376, 3897, 1543, 3639, 2197, 1349, -4561, 721, -2460, 71,
    172, 2618, -2312, -2790, 1192, 3338, -281, 475, 3914, 1041, -511, 1739, 3058, -1334, 3410, 979,
    -1491, 267, -3352, 1430, -1594, -4123, 66, -1038, -3242, -1496, -996, 1840, -72, -1183, 430, -3199,
    4096, 1386, 3227, -4283, 2162, 90, -4593, 4523, 537, 153, 2760, 3267, 3014, -3194, 4683, 368,
    -584, -2596, -2504, 3344, 2414, 2560, 288, -1648, 1591, -1318, -3295, 1956, 2576, -3257, -2991, -80,
    -813, -2832, -212, 397, -1769, 3667, 2879, 655, -688, 268, 3290, -288, -4584, -249, 2776, -412,
    -1398, 68, 3141, 2848, -2579, 2065, 2311, 2063, -2962, -2972, 3506, 1641, -1544, -1465, 2271, -1566,
    2767, -1161, 968, 1079, -2098, 101, 818, -4006, -807, 390, 3374, 907, -3481, -1201, 4055, -533,
    3090, 470, 2688, -1760, 4024, 864, -839, 3149, 2020, -2753, -295, 2936, 1020, -1295, -2667, -2868,
    2277, 1853, -3630, -841, 1037, -3624, 3530, -437, -1664, 456, 1480, 910, 3884, 2306, -397, 697,
    993, -1625, -3510, -436, -1560, -3869, 1461, -1719, 3922, 1465, 1744, 1194, 1597, 2623, 3009, -224,
    -524, 481, -1218, -841, 566, 1192, -4596, 2223, -956, -3521, -2380, 543, 1393, -3027, 1750, 3055,
    -2953, 1613, -1948, 370, 1143, -3160, 1618, 4684, 916, -2279, -585, 1541, 629, -388, -243, -2671,
    3282, -2954, -759, 3355, -2560, 103, -1014, -4268, 2605, -1181, -1257, -1539, 485, 2958, 4253, 685,
    -4148, 934, 728, 2913, -209, -4486, 2125, -261, 795, 595, 880, 2873, -3507, -3972, 3367, 3176,
    -1617, 3922, 809, -1076, -2218, -2180, 3287, -2518, -1680, 4078, -2001, 4030, 1829, 2032, 933, -733,
    1826, 1220, -2235, -3374, -3329, -496, 1171, -2596, 755, 2360, 2409, -1531, 939, -3632, 2947, -3274,
    227, -1287, -3396, -3550, -2631, -2974, 3126, -629, -2735, 15, -1849, -593, 3523, -3615, -3558, 1004,
    2855, -3891, 1287, 4058, -658, -2417, 2009, 2314, -425, -3341, 159, -2653, -3497, 2557, 2813, 1644,
    -3060, 3199, 3280, 3241, -550, -1041, -3954, 3304, 61, -4377, 3725, -253, 2193, -332, -362, 3323,
    3117, -1632, -99, 2500, -79, -1020, 3942, 3927, -818, 3379, -687, 405, 3005, -63, -128, -1170,
    -3141, 2884, -2932, -2862, 274, -149, 423, 40, 4336, -3695, -2185, 475, -3928, -3521, 3415, 1869,
    -1551, 1358, 997, -617, 3683, -284, 3187, -2906, -1945, 410, 1958, -1410, 2674, -3680, -1597, 2846,
    -3060, -3841, -1034, -3413, 1218, -720, -1206, 2265, 238, -3693, -3881, 2572, 1766, 2251, -3479, -792,
    3500, 3308, 2785, 3802, -1284, -3171, 2303, 2612, -1237, -382, -197, -3633, -1697, -1298, 1529, -1195,
    1849, 3688, -873, -998, -2573, -313, -3748, 2769, 3533, 1092, 3874, 2063, 2715, 3783, -2816, -321,
    1539, -1096, -2906, -1286, -2030, -1437, -3120, -1236, 2347, -1798, 1745, -3368, -2581, 425, 3793, -3783,
    1783, 716, -3347, -2974, 2064, -2047, 2870, -2833, 3094, -2090, 1659, 1226, -3214, -2148, -992, 13,
    2023, -1684, 603, -2222, -1947, 2673, -1122, -3589, 172, -584, 1164, -2089, 176, -2021, -2475, 936,
    1266, 758, 3784, 380, 348, -535, -3960, 1602, 3193, 406, -3194, 3678, 918, 2963, 1779, 646,
    -1207, 841, 1318, -248, -2616, -2153, -3754, -1602, -660, 3350, -2191, -4030, 2245, 3532, -3195, -41,
    1302, 2641, -735, 1866, 3147, 2397, 1996, 2491, -3670, 871, 3159, -3245, -3590, -3382, 1258, 3801,
    -372, -1628, 242, -3377, 709, -2693, -2757, -2988, -1160, 2669, 832, 2851, -3952, -3336, 2510, 3226,
    3478, -3804, 1835, -4039, -1211, 83, 1915, -1251, -3542, -3980, -1643, 3122, 1777, 2026, -3313, -3680,
    3790, 2675, -1765, 344, 2951, 3687, -3296, -2030, 1592, 3130, 713, -253, 159, 3727, -3216, 1866,
    -2302, -231, -3235, 2023, -2915, -362, -3203, 1009, -1372, -2728, -2404, 3167, -56, -428, 4122, 173,
    -1963, 438, -1902, -2258, -1910, 343, -3014, -2556, 3383, -348, -781, 2064, -2468, 2757, -297, -383,
    -2211, 1024, -2284, 3125, -1213, -862, -761, 929, 4638, 1747, 3145, -4081, -1600, -2958, -2309, 1341,
    -1914, 1551, -1004, -4270, -1473, -4571, 1521, -2445, 2514, 1139, -2862, -576, -4303, 2316, -2303, -1409,
    303, 1988, -1221, 2008, 2107, -506, 2716, -3592, -2230, -321, -417, 1453, 2958, -2958, 2149, 983,
    3402, 2186, -890, -581, -2726, 904, 3205, 1409, 3312, 1636, 788, -887, -3539, -768, 3477, 3561,
    -1386, 3362, 3376, -3495, -4040, -2040, -414, 1587, 1715, 2595, -2006, 2740, 934, -2908, -3027, 1456,
    3814, -2719, 485, -3878, 2668, 1208, -1043, 2164, 1699, 2761, 410, 40, 1966, 1381, -3472, -1572,
    3170, -2717, 3794, -1418, 3298, -3045, 2266, -1172, 3528, 1626, 1013, 1831, 1827, -1017, -684, 477,
    -3542, 881, 1406, -4359, -848, -405, -2516, 3850, 809, -3231, -2057, 1380, 2340, -1404, 4217, -2365,
    -2667, -1756, -2035, 1998, 2072, -2820, -2376, 1640, -248, 4372, 4349, -3356, 1776, -4586, 2276, -1714,
    -657, 4611, 1191, -2754, 2519, -1296, 4312, -2425, -1329, -4079, -2913, -556, -3338, -3424, -1480, -2919,
    -2482, 221, -3076, 2359, 2699, 3769, 1269, -387, -716, -1947, 2786, 2268, 2958, -795, -2830, 1366,
    3590, -650, 3308, 2892, 1440, -1108, -1374, -717, -307, -843, -3990, -2809, -1299, 3147, 1692, -3730,
    -2932, -2403, 3885, 1014, 3281, -3308, 3826, 3333, 284, -1915, 1606, -2201, -1698, 1537, -3146, 997,
    -218, 38, 188, 988, -2448, 1686, -3842, 1723, -3328, 3942, 985, 1135, 1088, 796, -1566, -3986,
    2450, 2481, -749, 205, -263, -925, 2795, -2449, -3827, -677, -2388, -2705, -1177, -158, 2690, 2305,
    3334, 3065, 1232, -27, -131, -3109, 390, -958, -1128, 3443, 1879, 2570, 2646, -2372, 1182, -514,
    1429, 2408, -1028, 3074, 171, -779, 2683, 3173, -1156, 2356, -913, -125, -2911, -1747, 539, -945,
    -411, 985, -1627, 2164, 4016, 3264, 3606, -1136, 132, -1374, -1995, -917, 2493, -3830, -2171, 2104,
};

// net.3.block.1.bias, shape=(64,)
static const int32_t net_3_block_1_bias[64] = {
    2768, -440, -298, -750, 3583, 3592, -2293, 1310, -3965, -2881, -719, -738, -2325, 3998, 1540, 316,
    -574, 61, 2852, -131, 92, 1904, 1959, 2015, -1918, 1361, 652, 590, -3530, 3593, 2460, 480,
    1574, -1017, -2310, -1071, -3034, 3040, 1753, 1705, -2770, -2037, 2974, -3319, 1427, 3696, -3571, 2453,
    -3377, -1293, 3461, 3669, 3720, 4027, -3951, 970, -3660, 2332, 1213, 3789, 961, 3446, -180, -3290,
};

// net.6.weight, shape=(1, 64)
static const int16_t net_6_weight[64] = {
    -3325, -637, -4316, 3470, -3053, -3742, 3644, -3227, -1828, -108, 993, -2063, 1841, -3257, 324, -4030,
    -4314, 1450, 1471, -2464, 1242, -1705, 1814, -143, -905, 574, -3887, 2294, 3786, 3297, -2994, -1649,
    -1795, 623, -3467, -3076, -2200, 3109, 1079, -4328, -1911, -3872, -1160, 130, -3367, -3829, -808, -173,
    3011, 1048, -3020, -4418, 799, -1224, 2402, -3052, -199, -2988, -2054, -3044, -853, -976, 3808, 3630,
};

// net.6.bias, shape=(1,)
static const int32_t net_6_bias[1] = {
    2562,
};

#endif // MODEL_Q15_H
